<?xml version="1.0"?>
<opencv_storage>
<cascade>
  <stageType>BOOST</stageType>
  <featureType>HAAR</featureType>
  <height>24</height>
  <width>24</width>
  <stageParams>
    <boostType>GAB</boostType>
    <minHitRate>9.9500000476837158e-01</minHitRate>
    <maxFalseAlarm>3.0000001192092896e-01</maxFalseAlarm>
    <weightTrimRate>9.4999999999999996e-01</weightTrimRate>
    <maxDepth>1</maxDepth>
    <maxWeakCount>100</maxWeakCount></stageParams>
  <featureParams>
    <maxCatCount>0</maxCatCount>
    <featSize>1</featSize>
    <mode>ALL</mode></featureParams>
  <stageNum>9</stageNum>
  <stages>
    <!-- stage 0 -->
    <_>
      <maxWeakCount>6</maxWeakCount>
      <stageThreshold>-5.8502995967864990e-01</stageThreshold>
      <weakClassifiers>
        <_>
          <internalNodes>
            0 -1 12 -1.3027937384322286e-03</internalNodes>
          <leafValues>
            -7.2681903839111328e-01 6.9781440496444702e-01</leafValues></_>
        <_>
          <internalNodes>
            0 -1 38 -1.5444624423980713e-01</internalNodes>
          <leafValues>
            9.2947643995285034e-01 -3.5047870874404907e-01</leafValues></_>
        <_>
          <internalNodes>
            0 -1 55 8.1041648983955383e-02</internalNodes>
          <leafValues>
            -5.1207023859024048e-01 9.4928944110870361e-01</leafValues></_>
        <_>
          <internalNodes>
            0 -1 17 2.9347352683544159e-03</internalNodes>
          <leafValues>
            4.9009716510772705e-01 -7.3804819583892822e-01</leafValues></_>
        <_>
          <internalNodes>
            0 -1 18 -2.3189167678356171e-01</internalNodes>
          <leafValues>
            9.8301374912261963e-01 -3.0804583430290222e-01</leafValues></_>
        <_>
          <internalNodes>
            0 -1 72 1.2197794765233994e-01</internalNodes>
          <leafValues>
            -4.5766845345497131e-01 9.6041566133499146e-01</leafValues></_></weakClassifiers></_>
    <!-- stage 1 -->
    <_>
      <maxWeakCount>7</maxWeakCount>
      <stageThreshold>-9.2690533399581909e-01</stageThreshold>
      <weakClassifiers>
        <_>
          <internalNodes>
            0 -1 22 -2.4587848782539368e-01</internalNodes>
          <leafValues>
            9.5083796977996826e-01 -4.3795901536941528e-01</leafValues></_>
        <_>
          <internalNodes>
            0 -1 48 -8.4044024348258972e-02</internalNodes>
          <leafValues>
            8.9877563714981079e-01 -3.6087653040885925e-01</leafValues></_>
        <_>
          <internalNodes>
            0 -1 65 -9.1770462691783905e-02</internalNodes>
          <leafValues>
            8.9326882362365723e-01 -2.8779587149620056e-01</leafValues></_>
        <_>
          <internalNodes>
            0 -1 33 -5.9272624552249908e-02</internalNodes>
          <leafValues>
            8.7127256393432617e-01 -2.9421830177307129e-01</leafValues></_>
        <_>
          <internalNodes>
            0 -1 4 -2.7015280723571777e-01</internalNodes>
          <leafValues>
            9.4741952419281006e-01 -2.3366348445415497e-01</leafValues></_>
        <_>
          <internalNodes>
            0 -1 19 5.1379692740738392e-04</internalNodes>
          <leafValues>
            3.7175354361534119e-01 -9.2209208011627197e-01</leafValues></_>
        <_>
          <internalNodes>
            0 -1 20 5.1471515325829387e-04</internalNodes>
          <leafValues>
            3.1585434079170227e-01 -8.1389075517654419e-01</leafValues></_></weakClassifiers></_>
    <!-- stage 2 -->
    <_>
      <maxWeakCount>7</maxWeakCount>
      <stageThreshold>-4.6011000871658325e-01</stageThreshold>
      <weakClassifiers>
        <_>
          <internalNodes>
            0 -1 78 -2.6037665084004402e-02</internalNodes>
          <leafValues>
            6.9268292188644409e-01 -5.0355237722396851e-01</leafValues></_>
        <_>
          <internalNodes>
            0 -1 64 -6.9290585815906525e-02</internalNodes>
          <leafValues>
            8.7536102533340454e-01 -3.5516959428787231e-01</leafValues></_>
        <_>
          <internalNodes>
            0 -1 31 -2.2514480352401733e-01</internalNodes>
          <leafValues>
            9.1922569274902344e-01 -3.3192932605743408e-01</leafValues></_>
        <_>
          <internalNodes>
            0 -1 61 1.5497204661369324e-01</internalNodes>
          <leafValues>
            -2.3653192818164825e-01 9.3902879953384399e-01</leafValues></_>
        <_>
          <internalNodes>
            0 -1 24 5.2832358051091433e-04</internalNodes>
          <leafValues>
            4.0002360939979553e-01 -7.3945802450180054e-01</leafValues></_>
        <_>
          <internalNodes>
            0 -1 30 1.6292950510978699e-01</internalNodes>
          <leafValues>
            -2.4583159387111664e-01 9.7037935256958008e-01</leafValues></_>
        <_>
          <internalNodes>
            0 -1 42 8.4167078137397766e-02</internalNodes>
          <leafValues>
            -2.9509410262107849e-01 8.1288117170333862e-01</leafValues></_></weakClassifiers></_>
    <!-- stage 3 -->
    <_>
      <maxWeakCount>9</maxWeakCount>
      <stageThreshold>-6.5717571973800659e-01</stageThreshold>
      <weakClassifiers>
        <_>
          <internalNodes>
            0 -1 6 -3.3469682931900024e-01</internalNodes>
          <leafValues>
            9.1978609561920166e-01 -3.5479152202606201e-01</leafValues></_>
        <_>
          <internalNodes>
            0 -1 21 1.3050891458988190e-01</internalNodes>
          <leafValues>
            -2.6381444931030273e-01 8.5103559494018555e-01</leafValues></_>
        <_>
          <internalNodes>
            0 -1 62 3.8041766732931137e-02</internalNodes>
          <leafValues>
            -3.6687391996383667e-01 5.9717619419097900e-01</leafValues></_>
        <_>
          <internalNodes>
            0 -1 11 2.7492684312164783e-03</internalNodes>
          <leafValues>
            2.6465487480163574e-01 -8.9836770296096802e-01</leafValues></_>
        <_>
          <internalNodes>
            0 -1 85 4.7335117124021053e-03</internalNodes>
          <leafValues>
            2.1946297585964203e-01 -8.5358244180679321e-01</leafValues></_>
        <_>
          <internalNodes>
            0 -1 47 -9.5426384359598160e-04</internalNodes>
          <leafValues>
            -9.4090950489044189e-01 1.4740952849388123e-01</leafValues></_>
        <_>
          <internalNodes>
            0 -1 63 1.1345432698726654e-01</internalNodes>
          <leafValues>
            -2.4976015090942383e-01 9.0941590070724487e-01</leafValues></_>
        <_>
          <internalNodes>
            0 -1 1 -5.7296253740787506e-02</internalNodes>
          <leafValues>
            8.5179942846298218e-01 -2.1203836798667908e-01</leafValues></_>
        <_>
          <internalNodes>
            0 -1 49 5.7664467021822929e-04</internalNodes>
          <leafValues>
            2.8284427523612976e-01 -7.9565936326980591e-01</leafValues></_></weakClassifiers></_>
    <!-- stage 4 -->
    <_>
      <maxWeakCount>8</maxWeakCount>
      <stageThreshold>-1.2575806379318237e+00</stageThreshold>
      <weakClassifiers>
        <_>
          <internalNodes>
            0 -1 52 -1.1190596222877502e-01</internalNodes>
          <leafValues>
            7.7376425266265869e-01 -4.5102879405021667e-01</leafValues></_>
        <_>
          <internalNodes>
            0 -1 45 1.0087534785270691e-01</internalNodes>
          <leafValues>
            -3.5446292161941528e-01 8.8424730300903320e-01</leafValues></_>
        <_>
          <internalNodes>
            0 -1 51 -2.9073334299027920e-03</internalNodes>
          <leafValues>
            -8.3529126644134521e-01 3.7101978063583374e-01</leafValues></_>
        <_>
          <internalNodes>
            0 -1 23 3.0155986314639449e-04</internalNodes>
          <leafValues>
            2.6173552870750427e-01 -7.5031936168670654e-01</leafValues></_>
        <_>
          <internalNodes>
            0 -1 53 -5.5426475591957569e-04</internalNodes>
          <leafValues>
            -8.8621222972869873e-01 2.2872282564640045e-01</leafValues></_>
        <_>
          <internalNodes>
            0 -1 53 3.6565546179190278e-04</internalNodes>
          <leafValues>
            2.8516137599945068e-01 -7.8697043657302856e-01</leafValues></_>
        <_>
          <internalNodes>
            0 -1 40 1.3287413120269775e-01</internalNodes>
          <leafValues>
            -3.0129685997962952e-01 8.3728218078613281e-01</leafValues></_>
        <_>
          <internalNodes>
            0 -1 41 -5.9430122375488281e-02</internalNodes>
          <leafValues>
            8.2879847288131714e-01 -2.8537672758102417e-01</leafValues></_></weakClassifiers></_>
    <!-- stage 5 -->
    <_>
      <maxWeakCount>9</maxWeakCount>
      <stageThreshold>-7.4457287788391113e-01</stageThreshold>
      <weakClassifiers>
        <_>
          <internalNodes>
            0 -1 59 -2.9589754343032837e-01</internalNodes>
          <leafValues>
            8.9773464202880859e-01 -3.6002951860427856e-01</leafValues></_>
        <_>
          <internalNodes>
            0 -1 50 -3.7739861756563187e-02</internalNodes>
          <leafValues>
            8.3547395467758179e-01 -2.8068438172340393e-01</leafValues></_>
        <_>
          <internalNodes>
            0 -1 57 8.1968838348984718e-03</internalNodes>
          <leafValues>
            -5.5772131681442261e-01 5.1418578624725342e-01</leafValues></_>
        <_>
          <internalNodes>
            0 -1 79 9.6565904095768929e-03</internalNodes>
          <leafValues>
            -2.4323193728923798e-01 7.6550912857055664e-01</leafValues></_>
        <_>
          <internalNodes>
            0 -1 29 -1.1358443647623062e-02</internalNodes>
          <leafValues>
            7.3949402570724487e-01 -3.3576345443725586e-01</leafValues></_>
        <_>
          <internalNodes>
            0 -1 77 -3.5544671118259430e-02</internalNodes>
          <leafValues>
            8.8778281211853027e-01 -1.4650353789329529e-01</leafValues></_>
        <_>
          <internalNodes>
            0 -1 69 8.5574060678482056e-02</internalNodes>
          <leafValues>
            -3.1041336059570312e-01 7.1288102865219116e-01</leafValues></_>
        <_>
          <internalNodes>
            0 -1 1 4.8842720687389374e-02</internalNodes>
          <leafValues>
            -2.6035270094871521e-01 7.6361572742462158e-01</leafValues></_>
        <_>
          <internalNodes>
            0 -1 76 6.4124488271772861e-03</internalNodes>
          <leafValues>
            -2.0819060504436493e-01 6.7822021245956421e-01</leafValues></_></weakClassifiers></_>
    <!-- stage 6 -->
    <_>
      <maxWeakCount>13</maxWeakCount>
      <stageThreshold>-1.0621793270111084e+00</stageThreshold>
      <weakClassifiers>
        <_>
          <internalNodes>
            0 -1 59 -3.8735836744308472e-01</internalNodes>
          <leafValues>
            9.5710879564285278e-01 -3.1007888913154602e-01</leafValues></_>
        <_>
          <internalNodes>
            0 -1 16 8.2976147532463074e-03</internalNodes>
          <leafValues>
            2.1373626589775085e-01 -9.6207112073898315e-01</leafValues></_>
        <_>
          <internalNodes>
            0 -1 74 -1.8638789653778076e-02</internalNodes>
          <leafValues>
            7.2590917348861694e-01 -2.5866848230361938e-01</leafValues></_>
        <_>
          <internalNodes>
            0 -1 14 -5.0696115940809250e-03</internalNodes>
          <leafValues>
            -8.8642287254333496e-01 2.4241481721401215e-01</leafValues></_>
        <_>
          <internalNodes>
            0 -1 60 6.6931580659002066e-04</internalNodes>
          <leafValues>
            -3.4989002346992493e-01 5.3050273656845093e-01</leafValues></_>
        <_>
          <internalNodes>
            0 -1 35 -4.3600168079137802e-02</internalNodes>
          <leafValues>
            5.3169381618499756e-01 -3.2088419795036316e-01</leafValues></_>
        <_>
          <internalNodes>
            0 -1 8 -3.2327488064765930e-02</internalNodes>
          <leafValues>
            7.0076382160186768e-01 -2.0084208250045776e-01</leafValues></_>
        <_>
          <internalNodes>
            0 -1 25 3.9614010602235794e-03</internalNodes>
          <leafValues>
            -1.9339428842067719e-01 6.7157661914825439e-01</leafValues></_>
        <_>
          <internalNodes>
            0 -1 37 1.8773998599499464e-03</internalNodes>
          <leafValues>
            -2.7455228567123413e-01 5.5627948045730591e-01</leafValues></_>
        <_>
          <internalNodes>
            0 -1 10 -2.8784247115254402e-04</internalNodes>
          <leafValues>
            2.7950358390808105e-01 -5.0667810440063477e-01</leafValues></_>
        <_>
          <internalNodes>
            0 -1 9 -2.3451220244169235e-02</internalNodes>
          <leafValues>
            -9.0724164247512817e-01 2.0300926268100739e-01</leafValues></_>
        <_>
          <internalNodes>
            0 -1 58 -1.1854151962324977e-03</internalNodes>
          <leafValues>
            6.3140046596527100e-01 -2.4427971243858337e-01</leafValues></_>
        <_>
          <internalNodes>
            0 -1 83 -9.8624825477600098e-03</internalNodes>
          <leafValues>
            -8.9791107177734375e-01 1.5174672007560730e-01</leafValues></_></weakClassifiers></_>
    <!-- stage 7 -->
    <_>
      <maxWeakCount>13</maxWeakCount>
      <stageThreshold>-1.0531784296035767e+00</stageThreshold>
      <weakClassifiers>
        <_>
          <internalNodes>
            0 -1 80 -2.7388501167297363e-01</internalNodes>
          <leafValues>
            8.3768117427825928e-01 -3.0802291631698608e-01</leafValues></_>
        <_>
          <internalNodes>
            0 -1 70 -1.0608604177832603e-02</internalNodes>
          <leafValues>
            2.7257519960403442e-01 -5.6618481874465942e-01</leafValues></_>
        <_>
          <internalNodes>
            0 -1 81 2.3452851921319962e-02</internalNodes>
          <leafValues>
            -2.4716624617576599e-01 6.0141265392303467e-01</leafValues></_>
        <_>
          <internalNodes>
            0 -1 82 1.8498562276363373e-02</internalNodes>
          <leafValues>
            1.6589803993701935e-01 -8.9897167682647705e-01</leafValues></_>
        <_>
          <internalNodes>
            0 -1 7 -5.2137453109025955e-02</internalNodes>
          <leafValues>
            -7.8799438476562500e-01 1.8299080431461334e-01</leafValues></_>
        <_>
          <internalNodes>
            0 -1 26 4.1353935375809669e-03</internalNodes>
          <leafValues>
            -2.4067580699920654e-01 5.8444577455520630e-01</leafValues></_>
        <_>
          <internalNodes>
            0 -1 32 -1.5260614454746246e-02</internalNodes>
          <leafValues>
            7.7005726099014282e-01 -1.9984446465969086e-01</leafValues></_>
        <_>
          <internalNodes>
            0 -1 3 -4.2105774627998471e-04</internalNodes>
          <leafValues>
            2.3310047388076782e-01 -5.5714541673660278e-01</leafValues></_>
        <_>
          <internalNodes>
            0 -1 84 -1.1754323728382587e-02</internalNodes>
          <leafValues>
            -8.7095636129379272e-01 1.5100638568401337e-01</leafValues></_>
        <_>
          <internalNodes>
            0 -1 67 -1.1161746224388480e-03</internalNodes>
          <leafValues>
            5.7275474071502686e-01 -2.3661443591117859e-01</leafValues></_>
        <_>
          <internalNodes>
            0 -1 5 -1.4214890077710152e-02</internalNodes>
          <leafValues>
            -9.7316205501556396e-01 1.6081553697586060e-01</leafValues></_>
        <_>
          <internalNodes>
            0 -1 34 -1.0745311155915260e-02</internalNodes>
          <leafValues>
            6.6954338550567627e-01 -2.2740940749645233e-01</leafValues></_>
        <_>
          <internalNodes>
            0 -1 46 1.2944978661835194e-03</internalNodes>
          <leafValues>
            -2.5122207403182983e-01 5.0187933444976807e-01</leafValues></_></weakClassifiers></_>
    <!-- stage 8 -->
    <_>
      <maxWeakCount>17</maxWeakCount>
      <stageThreshold>-1.0763092041015625e+00</stageThreshold>
      <weakClassifiers>
        <_>
          <internalNodes>
            0 -1 39 1.5343259274959564e-01</internalNodes>
          <leafValues>
            -2.8922092914581299e-01 7.9135620594024658e-01</leafValues></_>
        <_>
          <internalNodes>
            0 -1 54 2.6702219247817993e-01</internalNodes>
          <leafValues>
            -1.5728539228439331e-01 7.8146934509277344e-01</leafValues></_>
        <_>
          <internalNodes>
            0 -1 15 -1.0354183614253998e-02</internalNodes>
          <leafValues>
            -7.9232245683670044e-01 1.8834809958934784e-01</leafValues></_>
        <_>
          <internalNodes>
            0 -1 28 4.0784133598208427e-03</internalNodes>
          <leafValues>
            1.0650222748517990e-01 -8.4789413213729858e-01</leafValues></_>
        <_>
          <internalNodes>
            0 -1 44 6.5600187517702579e-03</internalNodes>
          <leafValues>
            9.6494168043136597e-02 -8.6250299215316772e-01</leafValues></_>
        <_>
          <internalNodes>
            0 -1 43 -1.3731727376580238e-02</internalNodes>
          <leafValues>
            5.5736315250396729e-01 -1.9694676995277405e-01</leafValues></_>
        <_>
          <internalNodes>
            0 -1 36 5.9351079165935516e-02</internalNodes>
          <leafValues>
            -3.0058357119560242e-01 3.6667561531066895e-01</leafValues></_>
        <_>
          <internalNodes>
            0 -1 2 5.0482504069805145e-02</internalNodes>
          <leafValues>
            1.6566286981105804e-01 -9.1779708862304688e-01</leafValues></_>
        <_>
          <internalNodes>
            0 -1 71 -3.2102235127240419e-03</internalNodes>
          <leafValues>
            4.8705381155014038e-01 -2.3106950521469116e-01</leafValues></_>
        <_>
          <internalNodes>
            0 -1 56 -2.2103756666183472e-02</internalNodes>
          <leafValues>
            4.4995415210723877e-01 -3.2942390441894531e-01</leafValues></_>
        <_>
          <internalNodes>
            0 -1 27 -1.7917086184024811e-01</internalNodes>
          <leafValues>
            7.5363880395889282e-01 -8.8382162153720856e-02</leafValues></_>
        <_>
          <internalNodes>
            0 -1 0 -4.2692391434684396e-04</internalNodes>
          <leafValues>
            2.8838846087455750e-01 -3.6014515161514282e-01</leafValues></_>
        <_>
          <internalNodes>
            0 -1 75 2.8000143356621265e-03</internalNodes>
          <leafValues>
            -2.9119181632995605e-01 3.2072359323501587e-01</leafValues></_>
        <_>
          <internalNodes>
            0 -1 73 -1.9373688846826553e-02</internalNodes>
          <leafValues>
            8.2293230295181274e-01 -1.3710832595825195e-01</leafValues></_>
        <_>
          <internalNodes>
            0 -1 68 3.5871593281626701e-03</internalNodes>
          <leafValues>
            2.0214600861072540e-01 -6.0505950450897217e-01</leafValues></_>
        <_>
          <internalNodes>
            0 -1 66 -2.5160987861454487e-03</internalNodes>
          <leafValues>
            4.9075135588645935e-01 -2.1188361942768097e-01</leafValues></_>
        <_>
          <internalNodes>
            0 -1 13 9.9845556542277336e-03</internalNodes>
          <leafValues>
            1.4586316049098969e-01 -8.9284992218017578e-01</leafValues></_></weakClassifiers></_></stages>
  <features>
    <_>
      <rects>
        <_>
          0 1 1 6 -1.</_>
        <_>
          0 4 1 3 2.</_></rects>
      <tilted>0</tilted></_>
    <_>
      <rects>
        <_>
          0 1 12 10 -1.</_>
        <_>
          0 1 6 5 2.</_>
        <_>
          6 6 6 5 2.</_></rects>
      <tilted>0</tilted></_>
    <_>
      <rects>
        <_>
          0 3 6 18 -1.</_>
        <_>
          2 9 2 6 9.</_></rects>
      <tilted>0</tilted></_>
    <_>
      <rects>
        <_>
          0 3 9 4 -1.</_>
        <_>
          0 5 9 2 2.</_></rects>
      <tilted>0</tilted></_>
    <_>
      <rects>
        <_>
          0 5 24 15 -1.</_>
        <_>
          6 5 12 15 2.</_></rects>
      <tilted>0</tilted></_>
    <_>
      <rects>
        <_>
          0 7 4 9 -1.</_>
        <_>
          0 10 4 3 3.</_></rects>
      <tilted>0</tilted></_>
    <_>
      <rects>
        <_>
          0 8 24 12 -1.</_>
        <_>
          6 8 12 12 2.</_></rects>
      <tilted>0</tilted></_>
    <_>
      <rects>
        <_>
          0 8 22 12 -1.</_>
        <_>
          0 8 11 6 2.</_>
        <_>
          11 14 11 6 2.</_></rects>
      <tilted>0</tilted></_>
    <_>
      <rects>
        <_>
          0 9 24 1 -1.</_>
        <_>
          6 9 12 1 2.</_></rects>
      <tilted>0</tilted></_>
    <_>
      <rects>
        <_>
          0 10 6 12 -1.</_>
        <_>
          0 14 6 4 3.</_></rects>
      <tilted>0</tilted></_>
    <_>
      <rects>
        <_>
          1 9 4 6 -1.</_>
        <_>
          1 12 4 3 2.</_></rects>
      <tilted>0</tilted></_>
    <_>
      <rects>
        <_>
          2 0 3 10 -1.</_>
        <_>
          2 5 3 5 2.</_></rects>
      <tilted>0</tilted></_>
    <_>
      <rects>
        <_>
          2 0 20 2 -1.</_>
        <_>
          2 0 10 2 2.</_></rects>
      <tilted>1</tilted></_>
    <_>
      <rects>
        <_>
          2 11 2 12 -1.</_>
        <_>
          2 15 2 4 3.</_></rects>
      <tilted>0</tilted></_>
    <_>
      <rects>
        <_>
          2 15 8 1 -1.</_>
        <_>
          4 17 4 1 2.</_></rects>
      <tilted>1</tilted></_>
    <_>
      <rects>
        <_>
          2 20 12 3 -1.</_>
        <_>
          6 21 4 1 9.</_></rects>
      <tilted>0</tilted></_>
    <_>
      <rects>
        <_>
          3 14 8 2 -1.</_>
        <_>
          5 16 4 2 2.</_></rects>
      <tilted>1</tilted></_>
    <_>
      <rects>
        <_>
          4 0 14 6 -1.</_>
        <_>
          4 3 14 3 2.</_></rects>
      <tilted>0</tilted></_>
    <_>
      <rects>
        <_>
          4 0 16 16 -1.</_>
        <_>
          4 8 16 8 2.</_></rects>
      <tilted>0</tilted></_>
    <_>
      <rects>
        <_>
          4 5 1 2 -1.</_>
        <_>
          4 6 1 1 2.</_></rects>
      <tilted>0</tilted></_>
    <_>
      <rects>
        <_>
          4 5 2 2 -1.</_>
        <_>
          4 5 1 1 2.</_>
        <_>
          5 6 1 1 2.</_></rects>
      <tilted>0</tilted></_>
    <_>
      <rects>
        <_>
          4 6 16 11 -1.</_>
        <_>
          8 6 8 11 2.</_></rects>
      <tilted>0</tilted></_>
    <_>
      <rects>
        <_>
          5 0 16 16 -1.</_>
        <_>
          5 8 16 8 2.</_></rects>
      <tilted>0</tilted></_>
    <_>
      <rects>
        <_>
          5 5 2 1 -1.</_>
        <_>
          6 5 1 1 2.</_></rects>
      <tilted>0</tilted></_>
    <_>
      <rects>
        <_>
          5 5 2 2 -1.</_>
        <_>
          5 5 1 1 2.</_>
        <_>
          6 6 1 1 2.</_></rects>
      <tilted>0</tilted></_>
    <_>
      <rects>
        <_>
          5 9 2 5 -1.</_>
        <_>
          6 9 1 5 2.</_></rects>
      <tilted>0</tilted></_>
    <_>
      <rects>
        <_>
          5 11 3 3 -1.</_>
        <_>
          6 11 1 3 3.</_></rects>
      <tilted>0</tilted></_>
    <_>
      <rects>
        <_>
          6 0 3 24 -1.</_>
        <_>
          7 8 1 8 9.</_></rects>
      <tilted>0</tilted></_>
    <_>
      <rects>
        <_>
          6 17 6 1 -1.</_>
        <_>
          8 19 2 1 3.</_></rects>
      <tilted>1</tilted></_>
    <_>
      <rects>
        <_>
          7 11 6 4 -1.</_>
        <_>
          6 12 6 2 2.</_></rects>
      <tilted>1</tilted></_>
    <_>
      <rects>
        <_>
          8 0 8 8 -1.</_>
        <_>
          8 0 4 8 2.</_></rects>
      <tilted>1</tilted></_>
    <_>
      <rects>
        <_>
          8 1 16 7 -1.</_>
        <_>
          12 5 8 7 2.</_></rects>
      <tilted>1</tilted></_>
    <_>
      <rects>
        <_>
          8 12 4 3 -1.</_>
        <_>
          7 13 4 1 3.</_></rects>
      <tilted>1</tilted></_>
    <_>
      <rects>
        <_>
          8 12 8 10 -1.</_>
        <_>
          8 17 8 5 2.</_></rects>
      <tilted>0</tilted></_>
    <_>
      <rects>
        <_>
          8 14 3 3 -1.</_>
        <_>
          7 15 3 1 3.</_></rects>
      <tilted>1</tilted></_>
    <_>
      <rects>
        <_>
          8 14 8 9 -1.</_>
        <_>
          8 17 8 3 3.</_></rects>
      <tilted>0</tilted></_>
    <_>
      <rects>
        <_>
          8 15 10 8 -1.</_>
        <_>
          8 19 10 4 2.</_></rects>
      <tilted>0</tilted></_>
    <_>
      <rects>
        <_>
          9 17 3 3 -1.</_>
        <_>
          9 18 3 1 3.</_></rects>
      <tilted>0</tilted></_>
    <_>
      <rects>
        <_>
          10 0 8 24 -1.</_>
        <_>
          10 6 8 12 2.</_></rects>
      <tilted>0</tilted></_>
    <_>
      <rects>
        <_>
          10 1 6 9 -1.</_>
        <_>
          10 1 3 9 2.</_></rects>
      <tilted>1</tilted></_>
    <_>
      <rects>
        <_>
          10 1 6 10 -1.</_>
        <_>
          10 1 3 10 2.</_></rects>
      <tilted>1</tilted></_>
    <_>
      <rects>
        <_>
          10 1 12 10 -1.</_>
        <_>
          10 1 6 5 2.</_>
        <_>
          16 6 6 5 2.</_></rects>
      <tilted>0</tilted></_>
    <_>
      <rects>
        <_>
          10 2 9 7 -1.</_>
        <_>
          13 5 3 7 3.</_></rects>
      <tilted>1</tilted></_>
    <_>
      <rects>
        <_>
          10 3 3 6 -1.</_>
        <_>
          11 4 1 6 3.</_></rects>
      <tilted>1</tilted></_>
    <_>
      <rects>
        <_>
          10 10 10 4 -1.</_>
        <_>
          10 10 5 2 2.</_>
        <_>
          15 12 5 2 2.</_></rects>
      <tilted>0</tilted></_>
    <_>
      <rects>
        <_>
          10 10 14 12 -1.</_>
        <_>
          10 10 7 6 2.</_>
        <_>
          17 16 7 6 2.</_></rects>
      <tilted>0</tilted></_>
    <_>
      <rects>
        <_>
          10 16 1 3 -1.</_>
        <_>
          9 17 1 1 3.</_></rects>
      <tilted>1</tilted></_>
    <_>
      <rects>
        <_>
          10 23 4 1 -1.</_>
        <_>
          12 23 2 1 2.</_></rects>
      <tilted>0</tilted></_>
    <_>
      <rects>
        <_>
          11 7 10 10 -1.</_>
        <_>
          16 7 5 10 2.</_></rects>
      <tilted>0</tilted></_>
    <_>
      <rects>
        <_>
          11 22 2 2 -1.</_>
        <_>
          11 22 1 1 2.</_>
        <_>
          12 23 1 1 2.</_></rects>
      <tilted>0</tilted></_>
    <_>
      <rects>
        <_>
          12 1 9 4 -1.</_>
        <_>
          12 1 9 2 2.</_></rects>
      <tilted>1</tilted></_>
    <_>
      <rects>
        <_>
          12 21 6 2 -1.</_>
        <_>
          15 21 3 2 2.</_></rects>
      <tilted>0</tilted></_>
    <_>
      <rects>
        <_>
          13 0 5 24 -1.</_>
        <_>
          13 6 5 12 2.</_></rects>
      <tilted>0</tilted></_>
    <_>
      <rects>
        <_>
          13 22 2 2 -1.</_>
        <_>
          13 22 1 1 2.</_>
        <_>
          14 23 1 1 2.</_></rects>
      <tilted>0</tilted></_>
    <_>
      <rects>
        <_>
          14 5 10 9 -1.</_>
        <_>
          14 5 5 9 2.</_></rects>
      <tilted>1</tilted></_>
    <_>
      <rects>
        <_>
          14 6 10 5 -1.</_>
        <_>
          14 6 5 5 2.</_></rects>
      <tilted>1</tilted></_>
    <_>
      <rects>
        <_>
          14 12 4 12 -1.</_>
        <_>
          14 15 4 6 2.</_></rects>
      <tilted>0</tilted></_>
    <_>
      <rects>
        <_>
          14 15 4 8 -1.</_>
        <_>
          14 19 4 4 2.</_></rects>
      <tilted>0</tilted></_>
    <_>
      <rects>
        <_>
          15 16 2 2 -1.</_>
        <_>
          15 16 1 1 2.</_>
        <_>
          16 17 1 1 2.</_></rects>
      <tilted>0</tilted></_>
    <_>
      <rects>
        <_>
          16 0 8 16 -1.</_>
        <_>
          12 4 8 8 2.</_></rects>
      <tilted>1</tilted></_>
    <_>
      <rects>
        <_>
          16 6 2 2 -1.</_>
        <_>
          16 6 1 1 2.</_>
        <_>
          17 7 1 1 2.</_></rects>
      <tilted>0</tilted></_>
    <_>
      <rects>
        <_>
          16 6 8 9 -1.</_>
        <_>
          16 6 4 9 2.</_></rects>
      <tilted>1</tilted></_>
    <_>
      <rects>
        <_>
          16 8 6 11 -1.</_>
        <_>
          19 8 3 11 2.</_></rects>
      <tilted>0</tilted></_>
    <_>
      <rects>
        <_>
          16 9 6 7 -1.</_>
        <_>
          16 9 3 7 2.</_></rects>
      <tilted>1</tilted></_>
    <_>
      <rects>
        <_>
          16 10 8 6 -1.</_>
        <_>
          18 12 4 6 2.</_></rects>
      <tilted>1</tilted></_>
    <_>
      <rects>
        <_>
          16 11 8 5 -1.</_>
        <_>
          16 11 4 5 2.</_></rects>
      <tilted>1</tilted></_>
    <_>
      <rects>
        <_>
          16 13 2 4 -1.</_>
        <_>
          16 13 1 2 2.</_>
        <_>
          17 15 1 2 2.</_></rects>
      <tilted>0</tilted></_>
    <_>
      <rects>
        <_>
          16 15 2 2 -1.</_>
        <_>
          16 15 1 1 2.</_>
        <_>
          17 16 1 1 2.</_></rects>
      <tilted>0</tilted></_>
    <_>
      <rects>
        <_>
          17 0 5 2 -1.</_>
        <_>
          17 0 5 1 2.</_></rects>
      <tilted>1</tilted></_>
    <_>
      <rects>
        <_>
          17 2 7 6 -1.</_>
        <_>
          17 2 7 3 2.</_></rects>
      <tilted>1</tilted></_>
    <_>
      <rects>
        <_>
          17 4 5 20 -1.</_>
        <_>
          17 9 5 10 2.</_></rects>
      <tilted>0</tilted></_>
    <_>
      <rects>
        <_>
          17 12 2 6 -1.</_>
        <_>
          17 12 1 3 2.</_>
        <_>
          18 15 1 3 2.</_></rects>
      <tilted>0</tilted></_>
    <_>
      <rects>
        <_>
          18 0 3 18 -1.</_>
        <_>
          12 6 3 6 3.</_></rects>
      <tilted>1</tilted></_>
    <_>
      <rects>
        <_>
          18 4 4 3 -1.</_>
        <_>
          17 5 4 1 3.</_></rects>
      <tilted>1</tilted></_>
    <_>
      <rects>
        <_>
          18 4 5 4 -1.</_>
        <_>
          17 5 5 2 2.</_></rects>
      <tilted>1</tilted></_>
    <_>
      <rects>
        <_>
          18 5 4 8 -1.</_>
        <_>
          19 5 2 8 2.</_></rects>
      <tilted>0</tilted></_>
    <_>
      <rects>
        <_>
          19 5 3 3 -1.</_>
        <_>
          18 6 3 1 3.</_></rects>
      <tilted>1</tilted></_>
    <_>
      <rects>
        <_>
          19 11 4 6 -1.</_>
        <_>
          20 12 2 6 2.</_></rects>
      <tilted>1</tilted></_>
    <_>
      <rects>
        <_>
          19 11 4 5 -1.</_>
        <_>
          19 11 2 5 2.</_></rects>
      <tilted>1</tilted></_>
    <_>
      <rects>
        <_>
          19 12 3 5 -1.</_>
        <_>
          20 13 1 5 3.</_></rects>
      <tilted>1</tilted></_>
    <_>
      <rects>
        <_>
          20 0 4 20 -1.</_>
        <_>
          15 5 4 10 2.</_></rects>
      <tilted>1</tilted></_>
    <_>
      <rects>
        <_>
          21 8 1 12 -1.</_>
        <_>
          17 12 1 4 3.</_></rects>
      <tilted>1</tilted></_>
    <_>
      <rects>
        <_>
          22 4 2 20 -1.</_>
        <_>
          22 14 2 10 2.</_></rects>
      <tilted>0</tilted></_>
    <_>
      <rects>
        <_>
          22 16 2 6 -1.</_>
        <_>
          22 16 2 3 2.</_></rects>
      <tilted>1</tilted></_>
    <_>
      <rects>
        <_>
          23 0 1 16 -1.</_>
        <_>
          23 8 1 8 2.</_></rects>
      <tilted>0</tilted></_>
    <_>
      <rects>
        <_>
          23 12 1 12 -1.</_>
        <_>
          23 18 1 6 2.</_></rects>
      <tilted>0</tilted></_></features></cascade>
</opencv_storage>
